<?xml version="1.0"?>
<opencv_storage>
<cascade>
  <stageType>BOOST</stageType>
  <featureType>HAAR</featureType>
  <height>48</height>
  <width>48</width>
  <stageParams>
    <boostType>GAB</boostType>
    <minHitRate>9.9500000476837158e-01</minHitRate>
    <maxFalseAlarm>5.0000000000000000e-01</maxFalseAlarm>
    <weightTrimRate>9.4999999999999996e-01</weightTrimRate>
    <maxDepth>1</maxDepth>
    <maxWeakCount>100</maxWeakCount></stageParams>
  <featureParams>
    <maxCatCount>0</maxCatCount>
    <featSize>1</featSize>
    <mode>BASIC</mode></featureParams>
  <stageNum>15</stageNum>
  <stages>
    <!-- stage 0 -->
    <_>
      <maxWeakCount>2</maxWeakCount>
      <stageThreshold>-3.5439977049827576e-01</stageThreshold>
      <weakClassifiers>
        <_>
          <internalNodes>
            0 -1 23 -3.9314865134656429e-03</internalNodes>
          <leafValues>
            7.5111109018325806e-01 -9.2000001668930054e-01</leafValues></_>
        <_>
          <internalNodes>
            0 -1 14 -2.7039516717195511e-02</internalNodes>
          <leafValues>
            5.6560021638870239e-01 -8.5174143314361572e-01</leafValues></_></weakClassifiers></_>
    <!-- stage 1 -->
    <_>
      <maxWeakCount>4</maxWeakCount>
      <stageThreshold>-5.1833349466323853e-01</stageThreshold>
      <weakClassifiers>
        <_>
          <internalNodes>
            0 -1 32 -1.6089480777736753e-04</internalNodes>
          <leafValues>
            7.0014995336532593e-01 -7.1673822402954102e-01</leafValues></_>
        <_>
          <internalNodes>
            0 -1 6 -1.8337769433856010e-02</internalNodes>
          <leafValues>
            6.9642388820648193e-01 -5.5926567316055298e-01</leafValues></_>
        <_>
          <internalNodes>
            0 -1 56 -7.8398309415206313e-04</internalNodes>
          <leafValues>
            4.7000044584274292e-01 -8.8661587238311768e-01</leafValues></_>
        <_>
          <internalNodes>
            0 -1 30 -7.5230631045997143e-03</internalNodes>
          <leafValues>
            3.8859665393829346e-01 -8.5741424560546875e-01</leafValues></_></weakClassifiers></_>
    <!-- stage 2 -->
    <_>
      <maxWeakCount>5</maxWeakCount>
      <stageThreshold>-1.9278131425380707e-01</stageThreshold>
      <weakClassifiers>
        <_>
          <internalNodes>
            0 -1 37 -1.2168005196144804e-04</internalNodes>
          <leafValues>
            6.3253855705261230e-01 -8.0748665332794189e-01</leafValues></_>
        <_>
          <internalNodes>
            0 -1 9 -1.0218715295195580e-02</internalNodes>
          <leafValues>
            7.6142179965972900e-01 -4.6864938735961914e-01</leafValues></_>
        <_>
          <internalNodes>
            0 -1 16 -6.0460339300334454e-03</internalNodes>
          <leafValues>
            4.3363645672798157e-01 -9.1296523809432983e-01</leafValues></_>
        <_>
          <internalNodes>
            0 -1 33 -5.0167813897132874e-03</internalNodes>
          <leafValues>
            3.4850046038627625e-01 -9.2349565029144287e-01</leafValues></_>
        <_>
          <internalNodes>
            0 -1 26 -1.6879722534213215e-04</internalNodes>
          <leafValues>
            3.0121776461601257e-01 -7.9902732372283936e-01</leafValues></_></weakClassifiers></_>
    <!-- stage 3 -->
    <_>
      <maxWeakCount>4</maxWeakCount>
      <stageThreshold>-3.7787017226219177e-01</stageThreshold>
      <weakClassifiers>
        <_>
          <internalNodes>
            0 -1 15 2.4245469830930233e-04</internalNodes>
          <leafValues>
            5.9408605098724365e-01 -9.1025638580322266e-01</leafValues></_>
        <_>
          <internalNodes>
            0 -1 0 2.6183001697063446e-02</internalNodes>
          <leafValues>
            -4.8276695609092712e-01 7.6938319206237793e-01</leafValues></_>
        <_>
          <internalNodes>
            0 -1 39 1.9955294555984437e-04</internalNodes>
          <leafValues>
            4.2350891232490540e-01 -8.9649897813796997e-01</leafValues></_>
        <_>
          <internalNodes>
            0 -1 53 -1.5143114142119884e-03</internalNodes>
          <leafValues>
            5.9164428710937500e-01 -5.4600906372070313e-01</leafValues></_></weakClassifiers></_>
    <!-- stage 4 -->
    <_>
      <maxWeakCount>4</maxWeakCount>
      <stageThreshold>-2.8131490945816040e-01</stageThreshold>
      <weakClassifiers>
        <_>
          <internalNodes>
            0 -1 47 -3.9829325396567583e-04</internalNodes>
          <leafValues>
            5.6250000000000000e-01 -1.</leafValues></_>
        <_>
          <internalNodes>
            0 -1 11 4.8738345503807068e-03</internalNodes>
          <leafValues>
            -5.7591152191162109e-01 6.4298635721206665e-01</leafValues></_>
        <_>
          <internalNodes>
            0 -1 43 -6.8266637390479445e-04</internalNodes>
          <leafValues>
            6.0485965013504028e-01 -6.2424427270889282e-01</leafValues></_>
        <_>
          <internalNodes>
            0 -1 34 -4.4921034714207053e-04</internalNodes>
          <leafValues>
            -8.3889400959014893e-01 3.5634085536003113e-01</leafValues></_></weakClassifiers></_>
    <!-- stage 5 -->
    <_>
      <maxWeakCount>5</maxWeakCount>
      <stageThreshold>-6.2742525339126587e-01</stageThreshold>
      <weakClassifiers>
        <_>
          <internalNodes>
            0 -1 60 4.3583998922258615e-04</internalNodes>
          <leafValues>
            -5.6626504659652710e-01 6.7741936445236206e-01</leafValues></_>
        <_>
          <internalNodes>
            0 -1 2 2.0319882780313492e-02</internalNodes>
          <leafValues>
            -4.7562703490257263e-01 7.1149075031280518e-01</leafValues></_>
        <_>
          <internalNodes>
            0 -1 27 4.7457142500206828e-05</internalNodes>
          <leafValues>
            -7.6762443780899048e-01 4.6799975633621216e-01</leafValues></_>
        <_>
          <internalNodes>
            0 -1 62 -2.2264538332819939e-02</internalNodes>
          <leafValues>
            7.0850956439971924e-01 -4.4758373498916626e-01</leafValues></_>
        <_>
          <internalNodes>
            0 -1 17 -7.1423983899876475e-04</internalNodes>
          <leafValues>
            4.5880493521690369e-01 -7.1353608369827271e-01</leafValues></_></weakClassifiers></_>
    <!-- stage 6 -->
    <_>
      <maxWeakCount>5</maxWeakCount>
      <stageThreshold>-8.6362111568450928e-01</stageThreshold>
      <weakClassifiers>
        <_>
          <internalNodes>
            0 -1 28 -1.7231410602107644e-03</internalNodes>
          <leafValues>
            -8.0232560634613037e-01 6.0164833068847656e-01</leafValues></_>
        <_>
          <internalNodes>
            0 -1 24 -5.3402339108288288e-03</internalNodes>
          <leafValues>
            3.7305885553359985e-01 -8.9904528856277466e-01</leafValues></_>
        <_>
          <internalNodes>
            0 -1 19 5.3937565535306931e-02</internalNodes>
          <leafValues>
            -3.9870479702949524e-01 7.6866835355758667e-01</leafValues></_>
        <_>
          <internalNodes>
            0 -1 59 -4.4482443627202883e-05</internalNodes>
          <leafValues>
            3.5242640972137451e-01 -8.5965216159820557e-01</leafValues></_>
        <_>
          <internalNodes>
            0 -1 10 -7.4513154104351997e-03</internalNodes>
          <leafValues>
            5.3930407762527466e-01 -5.1994574069976807e-01</leafValues></_></weakClassifiers></_>
    <!-- stage 7 -->
    <_>
      <maxWeakCount>5</maxWeakCount>
      <stageThreshold>-3.3449143171310425e-01</stageThreshold>
      <weakClassifiers>
        <_>
          <internalNodes>
            0 -1 29 -3.3821817487478256e-04</internalNodes>
          <leafValues>
            -8.4615385532379150e-01 5.8064514398574829e-01</leafValues></_>
        <_>
          <internalNodes>
            0 -1 31 -3.8810627302154899e-04</internalNodes>
          <leafValues>
            4.3015706539154053e-01 -6.6956716775894165e-01</leafValues></_>
        <_>
          <internalNodes>
            0 -1 12 3.7617631256580353e-02</internalNodes>
          <leafValues>
            -5.0255906581878662e-01 5.4913699626922607e-01</leafValues></_>
        <_>
          <internalNodes>
            0 -1 49 1.6498743207193911e-04</internalNodes>
          <leafValues>
            3.2418346405029297e-01 -8.6661064624786377e-01</leafValues></_>
        <_>
          <internalNodes>
            0 -1 21 -4.0207716665463522e-05</internalNodes>
          <leafValues>
            3.0790910124778748e-01 -7.5686782598495483e-01</leafValues></_></weakClassifiers></_>
    <!-- stage 8 -->
    <_>
      <maxWeakCount>4</maxWeakCount>
      <stageThreshold>-5.2127909660339355e-01</stageThreshold>
      <weakClassifiers>
        <_>
          <internalNodes>
            0 -1 42 1.7113816284108907e-05</internalNodes>
          <leafValues>
            5.4973822832107544e-01 -8.8235294818878174e-01</leafValues></_>
        <_>
          <internalNodes>
            0 -1 3 1.1075959540903568e-02</internalNodes>
          <leafValues>
            -4.8801693320274353e-01 5.9924536943435669e-01</leafValues></_>
        <_>
          <internalNodes>
            0 -1 48 -2.9592867940664291e-04</internalNodes>
          <leafValues>
            3.9943701028823853e-01 -8.2588315010070801e-01</leafValues></_>
        <_>
          <internalNodes>
            0 -1 50 -1.4750647824257612e-04</internalNodes>
          <leafValues>
            2.7644324302673340e-01 -8.4437948465347290e-01</leafValues></_></weakClassifiers></_>
    <!-- stage 9 -->
    <_>
      <maxWeakCount>5</maxWeakCount>
      <stageThreshold>-2.6181790232658386e-01</stageThreshold>
      <weakClassifiers>
        <_>
          <internalNodes>
            0 -1 61 4.0362376603297889e-04</internalNodes>
          <leafValues>
            -5.3469389677047729e-01 6.5801525115966797e-01</leafValues></_>
        <_>
          <internalNodes>
            0 -1 13 1.0450163390487432e-03</internalNodes>
          <leafValues>
            3.7323930859565735e-01 -9.1410923004150391e-01</leafValues></_>
        <_>
          <internalNodes>
            0 -1 58 -9.2602260410785675e-03</internalNodes>
          <leafValues>
            3.3591002225875854e-01 -9.3388736248016357e-01</leafValues></_>
        <_>
          <internalNodes>
            0 -1 66 -7.5066611170768738e-03</internalNodes>
          <leafValues>
            5.8669739961624146e-01 -5.6489604711532593e-01</leafValues></_>
        <_>
          <internalNodes>
            0 -1 41 4.1893159504979849e-04</internalNodes>
          <leafValues>
            2.6437771320343018e-01 -9.5051050186157227e-01</leafValues></_></weakClassifiers></_>
    <!-- stage 10 -->
    <_>
      <maxWeakCount>4</maxWeakCount>
      <stageThreshold>-3.5674354434013367e-01</stageThreshold>
      <weakClassifiers>
        <_>
          <internalNodes>
            0 -1 52 -7.2321039624512196e-05</internalNodes>
          <leafValues>
            5.6521737575531006e-01 -7.0731705427169800e-01</leafValues></_>
        <_>
          <internalNodes>
            0 -1 5 1.5410881489515305e-02</internalNodes>
          <leafValues>
            -5.4831039905548096e-01 5.5108451843261719e-01</leafValues></_>
        <_>
          <internalNodes>
            0 -1 25 -8.2654564175754786e-04</internalNodes>
          <leafValues>
            4.0870720148086548e-01 -6.9864851236343384e-01</leafValues></_>
        <_>
          <internalNodes>
            0 -1 57 -2.8764404123649001e-04</internalNodes>
          <leafValues>
            4.1341963410377502e-01 -6.0921812057495117e-01</leafValues></_></weakClassifiers></_>
    <!-- stage 11 -->
    <_>
      <maxWeakCount>5</maxWeakCount>
      <stageThreshold>-2.4204243719577789e-01</stageThreshold>
      <weakClassifiers>
        <_>
          <internalNodes>
            0 -1 45 -5.3997430950403214e-04</internalNodes>
          <leafValues>
            -9.8245614767074585e-01 5.2417302131652832e-01</leafValues></_>
        <_>
          <internalNodes>
            0 -1 4 1.4354025945067406e-02</internalNodes>
          <leafValues>
            -3.6178824305534363e-01 6.7109042406082153e-01</leafValues></_>
        <_>
          <internalNodes>
            0 -1 20 3.2121699769049883e-04</internalNodes>
          <leafValues>
            3.0001118779182434e-01 -9.3348526954650879e-01</leafValues></_>
        <_>
          <internalNodes>
            0 -1 22 1.9147797138430178e-04</internalNodes>
          <leafValues>
            -6.8333131074905396e-01 2.8982046246528625e-01</leafValues></_>
        <_>
          <internalNodes>
            0 -1 35 -3.7948467070236802e-04</internalNodes>
          <leafValues>
            2.3923757672309875e-01 -8.7417680025100708e-01</leafValues></_></weakClassifiers></_>
    <!-- stage 12 -->
    <_>
      <maxWeakCount>5</maxWeakCount>
      <stageThreshold>-3.8796433806419373e-01</stageThreshold>
      <weakClassifiers>
        <_>
          <internalNodes>
            0 -1 38 -8.9548714458942413e-04</internalNodes>
          <leafValues>
            5.1837772130966187e-01 -9.8198199272155762e-01</leafValues></_>
        <_>
          <internalNodes>
            0 -1 55 -1.3913920847699046e-03</internalNodes>
          <leafValues>
            5.3707224130630493e-01 -4.6737959980964661e-01</leafValues></_>
        <_>
          <internalNodes>
            0 -1 67 -5.4849404841661453e-03</internalNodes>
          <leafValues>
            6.8870979547500610e-01 -3.8699960708618164e-01</leafValues></_>
        <_>
          <internalNodes>
            0 -1 44 -1.9738526316359639e-04</internalNodes>
          <leafValues>
            5.3772896528244019e-01 -5.1451456546783447e-01</leafValues></_>
        <_>
          <internalNodes>
            0 -1 1 -8.4067568182945251e-02</internalNodes>
          <leafValues>
            -5.4190015792846680e-01 5.2869528532028198e-01</leafValues></_></weakClassifiers></_>
    <!-- stage 13 -->
    <_>
      <maxWeakCount>5</maxWeakCount>
      <stageThreshold>-6.2486881017684937e-01</stageThreshold>
      <weakClassifiers>
        <_>
          <internalNodes>
            0 -1 54 -9.6362884505651891e-05</internalNodes>
          <leafValues>
            6.5759998559951782e-01 -4.0363636612892151e-01</leafValues></_>
        <_>
          <internalNodes>
            0 -1 8 -2.7400385588407516e-02</internalNodes>
          <leafValues>
            -5.2194547653198242e-01 5.6809538602828979e-01</leafValues></_>
        <_>
          <internalNodes>
            0 -1 63 3.3851183252409101e-04</internalNodes>
          <leafValues>
            -6.3722115755081177e-01 4.3549746274948120e-01</leafValues></_>
        <_>
          <internalNodes>
            0 -1 40 1.1677118891384453e-04</internalNodes>
          <leafValues>
            2.9396456480026245e-01 -9.4602966308593750e-01</leafValues></_>
        <_>
          <internalNodes>
            0 -1 64 -3.5053156316280365e-03</internalNodes>
          <leafValues>
            5.9101039171218872e-01 -4.1726675629615784e-01</leafValues></_></weakClassifiers></_>
    <!-- stage 14 -->
    <_>
      <maxWeakCount>6</maxWeakCount>
      <stageThreshold>-6.9272458553314209e-01</stageThreshold>
      <weakClassifiers>
        <_>
          <internalNodes>
            0 -1 36 -3.3533552195876837e-03</internalNodes>
          <leafValues>
            -7.1276593208312988e-01 6.0955053567886353e-01</leafValues></_>
        <_>
          <internalNodes>
            0 -1 46 -2.2642435505986214e-03</internalNodes>
          <leafValues>
            4.8717442154884338e-01 -5.5853784084320068e-01</leafValues></_>
        <_>
          <internalNodes>
            0 -1 18 -2.5202312826877460e-05</internalNodes>
          <leafValues>
            4.0070703625679016e-01 -6.4611828327178955e-01</leafValues></_>
        <_>
          <internalNodes>
            0 -1 65 -1.9103288650512695e-05</internalNodes>
          <leafValues>
            -6.0203355550765991e-01 3.7936681509017944e-01</leafValues></_>
        <_>
          <internalNodes>
            0 -1 7 2.0710991229861975e-03</internalNodes>
          <leafValues>
            -4.5960402488708496e-01 5.4600816965103149e-01</leafValues></_>
        <_>
          <internalNodes>
            0 -1 51 1.1433210602262989e-04</internalNodes>
          <leafValues>
            2.5810933113098145e-01 -9.4460010528564453e-01</leafValues></_></weakClassifiers></_></stages>
  <features>
    <_>
      <rects>
        <_>
          0 4 30 12 -1.</_>
        <_>
          0 4 15 6 2.</_>
        <_>
          15 10 15 6 2.</_></rects>
      <tilted>0</tilted></_>
    <_>
      <rects>
        <_>
          1 9 47 24 -1.</_>
        <_>
          1 21 47 12 2.</_></rects>
      <tilted>0</tilted></_>
    <_>
      <rects>
        <_>
          1 21 14 14 -1.</_>
        <_>
          8 21 7 14 2.</_></rects>
      <tilted>0</tilted></_>
    <_>
      <rects>
        <_>
          3 24 10 11 -1.</_>
        <_>
          8 24 5 11 2.</_></rects>
      <tilted>0</tilted></_>
    <_>
      <rects>
        <_>
          4 21 8 11 -1.</_>
        <_>
          8 21 4 11 2.</_></rects>
      <tilted>0</tilted></_>
    <_>
      <rects>
        <_>
          5 14 14 9 -1.</_>
        <_>
          12 14 7 9 2.</_></rects>
      <tilted>0</tilted></_>
    <_>
      <rects>
        <_>
          9 11 20 18 -1.</_>
        <_>
          9 11 10 9 2.</_>
        <_>
          19 20 10 9 2.</_></rects>
      <tilted>0</tilted></_>
    <_>
      <rects>
        <_>
          9 12 8 6 -1.</_>
        <_>
          9 12 4 3 2.</_>
        <_>
          13 15 4 3 2.</_></rects>
      <tilted>0</tilted></_>
    <_>
      <rects>
        <_>
          9 13 34 12 -1.</_>
        <_>
          9 19 34 6 2.</_></rects>
      <tilted>0</tilted></_>
    <_>
      <rects>
        <_>
          9 15 8 16 -1.</_>
        <_>
          9 15 4 8 2.</_>
        <_>
          13 23 4 8 2.</_></rects>
      <tilted>0</tilted></_>
    <_>
      <rects>
        <_>
          9 15 10 12 -1.</_>
        <_>
          9 15 5 6 2.</_>
        <_>
          14 21 5 6 2.</_></rects>
      <tilted>0</tilted></_>
    <_>
      <rects>
        <_>
          10 12 6 14 -1.</_>
        <_>
          10 19 6 7 2.</_></rects>
      <tilted>0</tilted></_>
    <_>
      <rects>
        <_>
          12 2 28 22 -1.</_>
        <_>
          12 13 28 11 2.</_></rects>
      <tilted>0</tilted></_>
    <_>
      <rects>
        <_>
          14 17 16 5 -1.</_>
        <_>
          22 17 8 5 2.</_></rects>
      <tilted>0</tilted></_>
    <_>
      <rects>
        <_>
          14 18 12 6 -1.</_>
        <_>
          18 18 4 6 2.</_></rects>
      <tilted>0</tilted></_>
    <_>
      <rects>
        <_>
          14 19 18 1 -1.</_>
        <_>
          23 19 9 1 2.</_></rects>
      <tilted>0</tilted></_>
    <_>
      <rects>
        <_>
          14 24 9 2 -1.</_>
        <_>
          17 24 3 2 2.</_></rects>
      <tilted>0</tilted></_>
    <_>
      <rects>
        <_>
          15 20 4 8 -1.</_>
        <_>
          17 20 2 8 2.</_></rects>
      <tilted>0</tilted></_>
    <_>
      <rects>
        <_>
          15 24 2 2 -1.</_>
        <_>
          16 24 1 2 2.</_></rects>
      <tilted>0</tilted></_>
    <_>
      <rects>
        <_>
          16 2 20 14 -1.</_>
        <_>
          16 9 20 7 2.</_></rects>
      <tilted>0</tilted></_>
    <_>
      <rects>
        <_>
          16 19 11 4 -1.</_>
        <_>
          16 21 11 2 2.</_></rects>
      <tilted>0</tilted></_>
    <_>
      <rects>
        <_>
          16 22 2 2 -1.</_>
        <_>
          17 22 1 2 2.</_></rects>
      <tilted>0</tilted></_>
    <_>
      <rects>
        <_>
          17 16 10 4 -1.</_>
        <_>
          17 16 5 2 2.</_>
        <_>
          22 18 5 2 2.</_></rects>
      <tilted>0</tilted></_>
    <_>
      <rects>
        <_>
          17 16 5 14 -1.</_>
        <_>
          17 23 5 7 2.</_></rects>
      <tilted>0</tilted></_>
    <_>
      <rects>
        <_>
          18 15 5 16 -1.</_>
        <_>
          18 23 5 8 2.</_></rects>
      <tilted>0</tilted></_>
    <_>
      <rects>
        <_>
          19 14 8 4 -1.</_>
        <_>
          19 16 8 2 2.</_></rects>
      <tilted>0</tilted></_>
    <_>
      <rects>
        <_>
          19 15 2 4 -1.</_>
        <_>
          19 17 2 2 2.</_></rects>
      <tilted>0</tilted></_>
    <_>
      <rects>
        <_>
          19 15 8 6 -1.</_>
        <_>
          19 15 4 3 2.</_>
        <_>
          23 18 4 3 2.</_></rects>
      <tilted>0</tilted></_>
    <_>
      <rects>
        <_>
          19 16 6 12 -1.</_>
        <_>
          22 16 3 12 2.</_></rects>
      <tilted>0</tilted></_>
    <_>
      <rects>
        <_>
          19 18 12 2 -1.</_>
        <_>
          19 18 6 1 2.</_>
        <_>
          25 19 6 1 2.</_></rects>
      <tilted>0</tilted></_>
    <_>
      <rects>
        <_>
          19 23 8 3 -1.</_>
        <_>
          19 24 8 1 2.</_></rects>
      <tilted>0</tilted></_>
    <_>
      <rects>
        <_>
          21 13 3 4 -1.</_>
        <_>
          21 15 3 2 2.</_></rects>
      <tilted>0</tilted></_>
    <_>
      <rects>
        <_>
          21 14 2 4 -1.</_>
        <_>
          21 16 2 2 2.</_></rects>
      <tilted>0</tilted></_>
    <_>
      <rects>
        <_>
          21 16 11 12 -1.</_>
        <_>
          21 22 11 6 2.</_></rects>
      <tilted>0</tilted></_>
    <_>
      <rects>
        <_>
          22 18 1 8 -1.</_>
        <_>
          22 22 1 4 2.</_></rects>
      <tilted>0</tilted></_>
    <_>
      <rects>
        <_>
          22 18 14 6 -1.</_>
        <_>
          22 18 7 3 2.</_>
        <_>
          29 21 7 3 2.</_></rects>
      <tilted>0</tilted></_>
    <_>
      <rects>
        <_>
          23 11 1 18 -1.</_>
        <_>
          23 20 1 9 2.</_></rects>
      <tilted>0</tilted></_>
    <_>
      <rects>
        <_>
          23 14 3 4 -1.</_>
        <_>
          23 16 3 2 2.</_></rects>
      <tilted>0</tilted></_>
    <_>
      <rects>
        <_>
          23 14 5 10 -1.</_>
        <_>
          23 19 5 5 2.</_></rects>
      <tilted>0</tilted></_>
    <_>
      <rects>
        <_>
          23 18 14 6 -1.</_>
        <_>
          23 18 7 3 2.</_>
        <_>
          30 21 7 3 2.</_></rects>
      <tilted>0</tilted></_>
    <_>
      <rects>
        <_>
          23 19 3 8 -1.</_>
        <_>
          23 23 3 4 2.</_></rects>
      <tilted>0</tilted></_>
    <_>
      <rects>
        <_>
          23 19 8 4 -1.</_>
        <_>
          23 19 4 2 2.</_>
        <_>
          27 21 4 2 2.</_></rects>
      <tilted>0</tilted></_>
    <_>
      <rects>
        <_>
          23 23 10 1 -1.</_>
        <_>
          28 23 5 1 2.</_></rects>
      <tilted>0</tilted></_>
    <_>
      <rects>
        <_>
          24 12 5 4 -1.</_>
        <_>
          24 14 5 2 2.</_></rects>
      <tilted>0</tilted></_>
    <_>
      <rects>
        <_>
          24 12 7 2 -1.</_>
        <_>
          24 13 7 1 2.</_></rects>
      <tilted>0</tilted></_>
    <_>
      <rects>
        <_>
          24 21 4 2 -1.</_>
        <_>
          26 21 2 2 2.</_></rects>
      <tilted>0</tilted></_>
    <_>
      <rects>
        <_>
          24 23 7 6 -1.</_>
        <_>
          24 26 7 3 2.</_></rects>
      <tilted>0</tilted></_>
    <_>
      <rects>
        <_>
          25 16 3 10 -1.</_>
        <_>
          25 21 3 5 2.</_></rects>
      <tilted>0</tilted></_>
    <_>
      <rects>
        <_>
          26 23 4 4 -1.</_>
        <_>
          26 25 4 2 2.</_></rects>
      <tilted>0</tilted></_>
    <_>
      <rects>
        <_>
          27 12 6 16 -1.</_>
        <_>
          30 12 3 16 2.</_></rects>
      <tilted>0</tilted></_>
    <_>
      <rects>
        <_>
          27 14 7 4 -1.</_>
        <_>
          27 16 7 2 2.</_></rects>
      <tilted>0</tilted></_>
    <_>
      <rects>
        <_>
          28 18 8 2 -1.</_>
        <_>
          28 19 8 1 2.</_></rects>
      <tilted>0</tilted></_>
    <_>
      <rects>
        <_>
          28 22 3 4 -1.</_>
        <_>
          28 24 3 2 2.</_></rects>
      <tilted>0</tilted></_>
    <_>
      <rects>
        <_>
          28 24 4 6 -1.</_>
        <_>
          28 27 4 3 2.</_></rects>
      <tilted>0</tilted></_>
    <_>
      <rects>
        <_>
          29 17 4 10 -1.</_>
        <_>
          29 17 2 5 2.</_>
        <_>
          31 22 2 5 2.</_></rects>
      <tilted>0</tilted></_>
    <_>
      <rects>
        <_>
          29 24 8 4 -1.</_>
        <_>
          29 26 8 2 2.</_></rects>
      <tilted>0</tilted></_>
    <_>
      <rects>
        <_>
          30 16 4 8 -1.</_>
        <_>
          30 20 4 4 2.</_></rects>
      <tilted>0</tilted></_>
    <_>
      <rects>
        <_>
          30 18 4 10 -1.</_>
        <_>
          30 18 2 5 2.</_>
        <_>
          32 23 2 5 2.</_></rects>
      <tilted>0</tilted></_>
    <_>
      <rects>
        <_>
          30 21 6 6 -1.</_>
        <_>
          32 21 2 6 2.</_></rects>
      <tilted>0</tilted></_>
    <_>
      <rects>
        <_>
          31 16 3 4 -1.</_>
        <_>
          31 18 3 2 2.</_></rects>
      <tilted>0</tilted></_>
    <_>
      <rects>
        <_>
          33 26 6 3 -1.</_>
        <_>
          36 26 3 3 2.</_></rects>
      <tilted>0</tilted></_>
    <_>
      <rects>
        <_>
          34 25 4 5 -1.</_>
        <_>
          36 25 2 5 2.</_></rects>
      <tilted>0</tilted></_>
    <_>
      <rects>
        <_>
          35 11 12 23 -1.</_>
        <_>
          41 11 6 23 2.</_></rects>
      <tilted>0</tilted></_>
    <_>
      <rects>
        <_>
          35 19 4 9 -1.</_>
        <_>
          37 19 2 9 2.</_></rects>
      <tilted>0</tilted></_>
    <_>
      <rects>
        <_>
          36 27 8 4 -1.</_>
        <_>
          40 27 4 4 2.</_></rects>
      <tilted>0</tilted></_>
    <_>
      <rects>
        <_>
          37 19 2 7 -1.</_>
        <_>
          38 19 1 7 2.</_></rects>
      <tilted>0</tilted></_>
    <_>
      <rects>
        <_>
          37 22 10 12 -1.</_>
        <_>
          42 22 5 12 2.</_></rects>
      <tilted>0</tilted></_>
    <_>
      <rects>
        <_>
          37 24 6 14 -1.</_>
        <_>
          40 24 3 14 2.</_></rects>
      <tilted>0</tilted></_></features></cascade>
</opencv_storage>
