<?xml version="1.0"?>
<opencv_storage>
<stage11>
  <maxWeakCount>5</maxWeakCount>
  <stageThreshold>-2.4204243719577789e-01</stageThreshold>
  <weakClassifiers>
    <_>
      <internalNodes>
        0 -1 1961254 -5.3997430950403214e-04</internalNodes>
      <leafValues>
        -9.8245614767074585e-01 5.2417302131652832e-01</leafValues></_>
    <_>
      <internalNodes>
        0 -1 476436 1.4354025945067406e-02</internalNodes>
      <leafValues>
        -3.6178824305534363e-01 6.7109042406082153e-01</leafValues></_>
    <_>
      <internalNodes>
        0 -1 1471173 3.2121699769049883e-04</internalNodes>
      <leafValues>
        3.0001118779182434e-01 -9.3348526954650879e-01</leafValues></_>
    <_>
      <internalNodes>
        0 -1 1533822 1.9147797138430178e-04</internalNodes>
      <leafValues>
        -6.8333131074905396e-01 2.8982046246528625e-01</leafValues></_>
    <_>
      <internalNodes>
        0 -1 1848872 -3.7948467070236802e-04</internalNodes>
      <leafValues>
        2.3923757672309875e-01 -8.7417680025100708e-01</leafValues></_></weakClassifiers></stage11>
</opencv_storage>
