<?xml version="1.0"?>
<opencv_storage>
<stage12>
  <maxWeakCount>5</maxWeakCount>
  <stageThreshold>-3.8796433806419373e-01</stageThreshold>
  <weakClassifiers>
    <_>
      <internalNodes>
        0 -1 1898005 -8.9548714458942413e-04</internalNodes>
      <leafValues>
        5.1837772130966187e-01 -9.8198199272155762e-01</leafValues></_>
    <_>
      <internalNodes>
        0 -1 2196461 -1.3913920847699046e-03</internalNodes>
      <leafValues>
        5.3707224130630493e-01 -4.6737959980964661e-01</leafValues></_>
    <_>
      <internalNodes>
        0 -1 2451582 -5.4849404841661453e-03</internalNodes>
      <leafValues>
        6.8870979547500610e-01 -3.8699960708618164e-01</leafValues></_>
    <_>
      <internalNodes>
        0 -1 1948777 -1.9738526316359639e-04</internalNodes>
      <leafValues>
        5.3772896528244019e-01 -5.1451456546783447e-01</leafValues></_>
    <_>
      <internalNodes>
        0 -1 144804 -8.4067568182945251e-02</internalNodes>
      <leafValues>
        -5.4190015792846680e-01 5.2869528532028198e-01</leafValues></_></weakClassifiers></stage12>
</opencv_storage>
