<?xml version="1.0"?>
<opencv_storage>
<stage7>
  <maxWeakCount>5</maxWeakCount>
  <stageThreshold>-3.3449143171310425e-01</stageThreshold>
  <weakClassifiers>
    <_>
      <internalNodes>
        0 -1 1668729 -3.3821817487478256e-04</internalNodes>
      <leafValues>
        -8.4615385532379150e-01 5.8064514398574829e-01</leafValues></_>
    <_>
      <internalNodes>
        0 -1 1782422 -3.8810627302154899e-04</internalNodes>
      <leafValues>
        4.3015706539154053e-01 -6.6956716775894165e-01</leafValues></_>
    <_>
      <internalNodes>
        0 -1 1131584 3.7617631256580353e-02</internalNodes>
      <leafValues>
        -5.0255906581878662e-01 5.4913699626922607e-01</leafValues></_>
    <_>
      <internalNodes>
        0 -1 2096208 1.6498743207193911e-04</internalNodes>
      <leafValues>
        3.2418346405029297e-01 -8.6661064624786377e-01</leafValues></_>
    <_>
      <internalNodes>
        0 -1 1475239 -4.0207716665463522e-05</internalNodes>
      <leafValues>
        3.0790910124778748e-01 -7.5686782598495483e-01</leafValues></_></weakClassifiers></stage7>
</opencv_storage>
