<?xml version="1.0"?>
<opencv_storage>
<stage13>
  <maxWeakCount>5</maxWeakCount>
  <stageThreshold>-6.2486881017684937e-01</stageThreshold>
  <weakClassifiers>
    <_>
      <internalNodes>
        0 -1 2189221 -9.6362884505651891e-05</internalNodes>
      <leafValues>
        6.5759998559951782e-01 -4.0363636612892151e-01</leafValues></_>
    <_>
      <internalNodes>
        0 -1 914539 -2.7400385588407516e-02</internalNodes>
      <leafValues>
        -5.2194547653198242e-01 5.6809538602828979e-01</leafValues></_>
    <_>
      <internalNodes>
        0 -1 2397720 3.3851183252409101e-04</internalNodes>
      <leafValues>
        -6.3722115755081177e-01 4.3549746274948120e-01</leafValues></_>
    <_>
      <internalNodes>
        0 -1 1905161 1.1677118891384453e-04</internalNodes>
      <leafValues>
        2.9396456480026245e-01 -9.4602966308593750e-01</leafValues></_>
    <_>
      <internalNodes>
        0 -1 2429412 -3.5053156316280365e-03</internalNodes>
      <leafValues>
        5.9101039171218872e-01 -4.1726675629615784e-01</leafValues></_></weakClassifiers></stage13>
</opencv_storage>
